{"classifier_weight": [[0.016672583296895027, -0.012390585616230965, -0.0004257629334460944, 0.026864323765039444, -0.011923424899578094, 0.026061415672302246, -0.028087245300412178, -0.026270410045981407, -0.0013325634645298123, -0.004296263679862022, 0.022886332124471664, -0.00889669731259346, -0.006025370676070452, 0.020625511184334755, 0.014492395333945751, -0.00016187755682040006, 0.00032041806844063103, -0.002487095771357417, 0.010283426381647587, -0.013340943492949009, 0.030631471425294876, 0.014692679047584534, 0.014833108521997929, 0.026134546846151352, -0.02358691208064556, -0.016118081286549568, -0.030941767618060112, 0.01894919015467167, 0.00015140551840886474, 0.0037002379540354013, 0.0011888057924807072, -0.004086602944880724, 0.021633189171552658, 0.0189024917781353, -0.013335137628018856, -0.0027257094625383615, 0.014346502721309662, 0.032745733857154846, -0.028849821537733078, 0.022431597113609314, -0.014136726967990398, 0.016386236995458603, -0.028667936101555824, -0.008378353901207447, 0.0012043954338878393, 0.001633790205232799, 0.015199876390397549, 0.01317607518285513, 0.011694694869220257, 0.030576763674616814, -0.00982334278523922, -0.011970645748078823, -0.03648039698600769, -0.004507503472268581, 0.011543183587491512, 0.03605716675519943, 0.00478831073269248, -0.015758048743009567, 0.010501527227461338, 0.01752513088285923, 0.017679251730442047, 0.016414206475019455, -0.0022199261002242565, -0.02920110523700714, 0.008405346423387527, 0.007218291517347097, 0.022176550701260567, 0.019763460382819176, -0.007125825621187687, 0.004928521811962128, -0.02970183826982975, -0.004067450296133757, 0.00657840957865119, 0.008947825990617275, 0.004018556792289019, -0.019828684628009796, -0.025627315044403076, -0.00959050003439188, 0.005370635539293289, 0.011614766903221607, -0.012309529818594456, 0.012704245746135712, 0.033284325152635574, 0.007319280412048101, -0.03433668613433838, -0.005706010852009058, -0.010481433011591434, -0.010441241785883904, 0.006096856202930212, 0.0016595700290054083, 0.004013351164758205, -0.02078838087618351, 0.013405350968241692, 0.0016966211842373013, -0.011466536670923233, 0.025691457092761993, 0.01216356735676527, -0.0011646086350083351, 0.011410288512706757, -0.010503900237381458, -0.008214954286813736, 0.009874621406197548, 0.0013581145321950316, -0.0036349764559417963, 0.022883709520101547, -0.020679717883467674, 0.018258580937981606, -0.042346786707639694, -0.008490475825965405, 0.03679957985877991, -0.00014845890109427273, -0.03516135737299919, 0.00991485919803381, 0.012238199822604656, 0.038526277989149094, 0.0019977667834609747, 0.0023697158321738243, -0.026979103684425354, 0.015454359352588654, 0.0007036948227323592, -0.0019246097654104233, -0.004413663409650326, -0.029231682419776917, -0.011000526137650013, -0.011993150226771832, 0.01425316371023655, -0.0006002848385833204, 0.010952656157314777, -0.0015783935086801648, 0.032546352595090866, 0.012066205963492393, 0.02783532254397869, 0.01254262588918209, -0.029840854927897453, -0.024098331108689308, 0.02960214950144291, -0.0010055269813165069, -0.006417991127818823, -0.012662961147725582, 0.020055187866091728, 0.004126882180571556, -0.0013127692509442568, 0.013490226119756699, -0.0016518833581358194, -0.004966690670698881, -0.009711319580674171, 0.016971778124570847, 0.014456639066338539, -0.026223869994282722, 0.014649963937699795, 0.0012324515264481306, 0.00019634647469501942, 0.015348965302109718, 0.014294655062258244, -0.001694560400210321, 0.0009071933454833925, 0.002348571317270398, 0.01033386867493391, -0.010329263284802437, 0.006992373615503311, 0.028671693056821823, 0.013216990046203136, -0.00030697102192789316, -0.018421176820993423, -0.010773194953799248, -0.023742234334349632, -0.0023350976407527924, -0.04037240892648697, 0.03410346433520317, 0.016018342226743698, 0.02509797178208828, 0.01214304007589817, 0.0007609853055328131, 0.022592101246118546, 0.0031057328451424837, 0.015088170766830444, 0.02538580261170864, 0.013138094916939735, 0.008785726502537727, -0.005122127942740917, 0.0013090040301904082, 0.0257126297801733, -0.0018791737966239452, 0.015039878897368908, -0.022701621055603027, -0.02840549312531948, -0.022930670529603958, 0.0009402818395756185, 0.02298586629331112, 0.009457044303417206, 0.006648445967584848, -0.034582119435071945, -0.016186151653528214, 0.0025032744742929935, 0.0028237050864845514, -0.008531175553798676, 0.015374381095170975, 0.005788708105683327, -0.03316403180360794, 0.007292614318430424, -0.016554029658436775, -0.009623554535210133, -0.00983030442148447, 0.018229763954877853, -0.014206849969923496, -0.007583573926240206, 0.010333103127777576, -0.019008563831448555, 0.0015725346747785807, -0.008707087486982346, -0.019465889781713486, -0.011245370842516422, -0.02770601026713848, -0.014568144455552101, -0.015049508772790432, 0.0157043244689703, 0.006263528019189835, 0.024812601506710052, -0.017829660326242447, -0.006449877750128508, 0.0011745881056413054, -0.009394565597176552, -0.005436084233224392, 0.018813148140907288, -0.011340395547449589, -0.01821104995906353, -0.015235714614391327, 0.003319560782983899, -0.017923103645443916, 0.012221034616231918, -0.008663054555654526, 0.002793261082842946, -0.015338179655373096, -0.012546020559966564, 0.0005952763021923602, 0.0010863947682082653, -0.002604198409244418, -0.0002968880580738187, 0.008969406597316265, 0.021885905414819717, -0.03469555824995041, 0.004969933070242405, 0.00344895594753325, 0.012853655964136124, 0.01291930116713047, 0.02713940665125847, -0.002414352959021926, 0.01873302273452282, 0.006487921345978975, -0.004635030869394541, -0.0007676106761209667, 0.011038792319595814, -0.024339627474546432, 0.012617671862244606, -0.00388030125759542, -0.026642315089702606, -0.010491043329238892, 0.0036289673298597336, 0.013759881258010864, 0.0052927397191524506, 0.03130563721060753, -0.019721027463674545, -0.0011305934749543667, 0.011164427734911442, 0.0060099405236542225, -0.02246079407632351, 0.00016501490608789027, -0.024266138672828674, -0.021871041506528854, 0.009462544694542885, 0.024162547662854195, 0.042352836579084396, 0.008377217687666416, -0.005120802670717239, -0.0031105633825063705, 0.0011026953579857945, 0.0036608793307095766, -0.04304216057062149, -0.011750633828341961, -0.0015265007968991995, -0.0034299518447369337, -0.0017604856984689832, 0.003973701968789101, 0.0017879661172628403, 0.0019778155256062746, 0.016458094120025635, 0.021096335723996162, -0.02782280556857586, -0.00865586381405592, 0.016141073778271675, 0.004196567460894585, 0.025269413366913795, -0.017005810514092445, 0.0035936650820076466, -0.011409575119614601, -0.0031559315975755453, 0.015465273521840572, -0.025221578776836395, -0.013942655175924301, 0.014253937639296055, -0.008784793317317963, 0.016735902056097984, -0.013146871700882912, -0.01632566563785076, -0.0007125725387595594, -0.0009581321501173079, -0.02904513105750084, 0.00954978633671999, -0.008366887457668781, -0.0007530522998422384, 0.02035841904580593, 0.04131055623292923, 0.023539738729596138, -0.010396844707429409, -0.010019278153777122, 0.017310600727796555, -0.01079127099364996, 0.01680915243923664, 0.015107686631381512, 0.019045280292630196, -0.010069641284644604, 0.00231928750872612, -0.014489262364804745, -0.03438454866409302, 0.007305308245122433, -0.014860904775559902, 0.017893724143505096, -0.0025905617512762547, -0.014134075492620468, 0.019711488857865334, 0.021346842870116234, 0.040821999311447144, 0.003222908591851592, -0.02181677147746086, -0.01427217572927475, -0.005496108904480934, 0.01499045267701149, 0.01028175838291645, -0.01642199046909809, -0.009375113993883133, 0.008437003009021282, 0.027834996581077576, -0.005604843143373728, -0.008467720821499825, -0.007367644924670458, -0.0004701856232713908, 0.008884738199412823, 0.018375659361481667, 0.022752799093723297, 0.005054698325693607, 0.007990993559360504, 0.013955537229776382, -0.023447133600711823, -0.008278968743979931, -0.026442058384418488, -0.015059146098792553, 0.010958061553537846, -0.022061919793486595, 0.007633976638317108, -0.052839577198028564, 0.04486182704567909, 0.006347185466438532, 0.0042863087728619576, 0.001748964306898415, 0.001381266862154007, -0.013255329802632332, -0.013674815185368061, -0.00020458648214116693, -0.012829882092773914, -0.008706734515726566, 0.02642437256872654, 0.005424689035862684, 0.008681589737534523, 0.007596434559673071, 0.01909828744828701, -0.01286250352859497, -0.019572366029024124, -0.009576610289514065, 0.026336979120969772, -0.009049021638929844, -0.009552009403705597, -0.02072310447692871, 0.019383428618311882, 0.006314593367278576, -0.0015932383248582482, 0.017550725489854813, -0.0180687103420496, 0.018553592264652252, 0.01447296142578125, 0.002002822235226631, 0.002889875788241625, -0.00893981009721756, -0.012851792387664318, 0.010190514847636223, -0.001604100689291954, 0.0020186612382531166, 0.0034938575699925423, 0.0171207282692194, 0.01505059190094471, -0.00048461611731909215, -0.012655983678996563, 0.019560810178518295, -0.010269185528159142, -0.02614009939134121, -0.013816974125802517, 0.020222077146172523, 0.00023131798661779612, 0.014499533921480179, 0.01223119255155325, -0.010796896182000637, -0.01586099900305271, -0.009119689464569092, 0.0054721045307815075, -0.021991850808262825, 0.01463676430284977, 0.00990763958543539, -0.026085948571562767, -0.013086620718240738, 0.010317394509911537, -0.004380487371236086, 0.018126148730516434, 0.0025025452487170696, -0.00038635055534541607, -0.01711265556514263, 0.0027137601282447577, -0.005961590446531773, 0.027302365750074387, 0.017423879355192184, -0.010369284078478813, 0.009770291857421398, 0.008607578463852406, -0.020390747115015984, -0.014642182737588882, 0.0037965585943311453, 0.011120546609163284, 0.004245922900736332, -0.016662029549479485, 0.0014388307463377714, 0.004525091033428907, 0.026078473776578903, 0.009678809903562069, 0.007215405348688364, -0.02765795588493347, 0.005000458564609289, 0.001136086881160736, -0.004375740885734558, -0.020539866760373116, -0.017896126955747604, 0.0002663389313966036, 0.02180948294699192, 0.013332434929907322, 0.015701614320278168, -0.00010106240370078012, -0.009809429757297039, 0.01534105371683836, -0.02054751105606556, 0.029053956270217896, 0.009983930736780167, 0.02193610556423664, 0.017131097614765167, 0.020865442231297493, 0.016106022521853447, -0.007670274935662746, 0.017726246267557144, 0.02347755804657936, -0.008067114278674126, -0.0031900135800242424, -0.0026044691912829876, 0.006060929968953133, -0.012022324837744236, -0.03553694114089012, 0.0007034421432763338, -0.02071649394929409, 0.00799180381000042, -0.004605448804795742, -0.013227231800556183, -0.012181508354842663, -0.01030453946441412, -0.014488983899354935, 0.018768299371004105, -0.012357105500996113, 0.0174272321164608, 0.018744831904768944, 0.011846169829368591, -0.01944141462445259, 0.01577669009566307, 0.000848287483677268, -0.01246276218444109, 0.012462565675377846, 0.04579978808760643, -0.008860519155859947, -0.020513439550995827, -0.025210997089743614, 0.011411475948989391, -0.008635093457996845, -0.022277414798736572, 0.008456227369606495, 0.032727863639593124, -0.022710397839546204, 0.019211845472455025, 0.0033360091038048267, -0.011036021634936333, -0.0007649404578842223, 0.012424897402524948, -0.04028215631842613, 0.0027523620519787073, -0.028718093410134315, -0.014491650275886059, -0.00021577777806669474, -0.0013569791335612535, 0.006789747625589371, 0.012015610001981258, 0.007484365254640579, 0.005983420182019472, -0.004565232899039984, -0.015463564544916153, 0.0018401150591671467, -0.00411091186106205, 0.016345983371138573, 0.006192617118358612, -0.00883541814982891, 0.005182291846722364, 0.0022023955825716257, 0.010922634974122047, 0.02745683863759041, 0.021456200629472733, 0.008097466081380844, -0.016527535393834114, 0.01043689250946045, 0.008271853439509869, 0.014172091148793697, -0.026704920455813408, 0.024329831823706627, 0.03168042376637459, -0.015585280954837799, 0.010623889975249767, 0.001259760931134224, 0.005683514755219221, 0.010763386264443398, 0.01164320483803749, -0.018166380003094673, 0.003359780414029956, 0.01828041672706604, -0.009022626094520092, 0.006297385785728693, -0.026249468326568604, -0.00971916876733303, -0.01905471459031105, 0.01872318610548973, -0.00612978870049119, -0.021241452544927597, -0.0235173087567091, -0.0020790507551282644, 0.004472679924219847, 0.012871787883341312, 0.023309946060180664, 0.007798138074576855, -0.01019146479666233, -0.0017999078845605254, -0.018813610076904297, 0.02085520699620247, -0.027706367895007133, -0.014544636942446232, -0.005793743301182985, -0.00939110666513443, 0.013441218994557858, -0.002016152488067746, 0.034076739102602005, 0.01776842400431633, -0.022000262513756752, -0.013052324764430523, 0.009778711944818497, -0.0018837674288079143, 0.0024506228510290384, -0.026123346760869026, 0.059925954788923264, -0.010658071376383305, -0.01868654228746891, 0.011653568595647812, -0.0006628400296904147, -0.0034083565697073936, -0.011585334315896034, -0.01972789876163006, 0.014903299510478973, 0.011245569214224815, -0.004448427353054285, 0.006975362543016672, 0.005628530401736498, -0.0022455966100096703, 0.004706986714154482, 0.004057561978697777, -0.00019653224444482476, -0.007817954756319523, 0.010464086197316647, -0.00804090965539217, -0.0065766735933721066, 0.02078140154480934, 0.0022514041047543287, 0.013861901126801968, 0.016075875610113144, 0.0014403677778318524, -0.00830119289457798, 0.005294431932270527, 0.026149112731218338, 0.009890037588775158, 0.026342518627643585, -0.007597992662340403, -0.015398506075143814, 0.020207054913043976, 0.0036494587548077106, 0.014981143176555634, 0.016651934012770653, -0.026567839086055756, 0.004710901062935591, -0.01140114851295948, -0.007765145041048527, 0.02774348109960556, -0.011602342128753662, -0.024305015802383423, -0.008724461309611797, -0.009878571145236492, 0.03384125605225563, 0.0158866997808218, -0.0008149984641931951, -0.01226307824254036, 0.014788578264415264, -0.008573006838560104, -0.0031913549173623323, -1.2533306289697066e-05, -0.026265645399689674, 0.005509921349585056, -0.006370428018271923, 0.004500123672187328, 0.017549164593219757, -0.003327904036268592, -0.02112432010471821, 0.01139537151902914, 0.00802496075630188, -0.0035733242984861135, 0.023956255987286568, -0.00015036716649774462, -0.004790817853063345, 0.021301748231053352, -0.01822682097554207, -0.006123834289610386, -0.009997773915529251, 0.007734553888440132, 0.01190954726189375, 0.011883357539772987, -0.0032060081139206886, 0.00049877684796229, -0.0023063314147293568, 0.01107095181941986, -0.015372326597571373, -0.0017610655631870031, 0.01403383444994688, 0.009568202309310436, -0.0004892089054919779, -0.0032334427814930677, 0.003328779712319374, 0.017913859337568283, 0.004761386197060347, -0.008774659596383572, 0.024910612031817436, -0.010399628430604935, -0.015102952718734741, 0.022950753569602966, 0.0225034411996603, -0.007616568356752396, -0.012304839678108692, -0.007389658596366644, 0.019720103591680527, -0.014519608579576015, -0.020314598456025124, -0.03916744887828827, -0.012202872894704342, 0.003368350677192211, -0.0016577108763158321, 0.018783025443553925, -0.005775438155978918, 0.021779682487249374, -0.0023305811919271946, -0.001899347873404622, 0.02276565693318844, -0.0010587165597826242, -0.03759302571415901, -0.002788577228784561, -0.001206396846100688, -0.003999864216893911, 0.00022496332530863583, 0.0345468632876873, 0.03254278004169464, 0.025483231991529465, 0.005675395950675011, -0.025348152965307236, -0.03332585096359253, -0.011017262935638428, -0.003056656802073121, -0.01519820373505354, -0.009526162408292294, -0.009086531586945057, 0.02369934320449829, -4.35850779467728e-05, -0.024127792567014694, -0.0014174741227179766, -0.015817979350686073, -0.013146697543561459, -0.002790514612570405, -0.0027818484231829643, -0.029135970398783684, 0.012816159054636955, 0.002112368354573846, 0.020754050463438034, 0.008708071894943714, 0.022558458149433136, 0.006209525745362043, 0.01567392237484455, -0.007845882326364517, -0.02112220600247383, -0.0024204738438129425, -0.01469060592353344, 0.029125982895493507, -0.020827144384384155, 0.004098719917237759, -0.027913501486182213, -0.00787937268614769, 0.0021816256921738386, 0.00810877326875925, -0.010915489867329597, 0.013124422170221806, -0.011403060518205166, 0.011565462686121464, 0.004942048341035843, -0.016960827633738518, 0.023104988038539886, -0.0052687032148242, 0.01808248832821846, -0.016888663172721863, 0.008638318628072739, -0.008503938093781471, 0.006083562038838863, -0.007584046572446823, -0.007383683230727911, -0.01895349845290184, 0.006234973203390837, 0.00823324266821146, -0.020941270515322685, -0.023775456473231316, 0.008809389546513557, 0.001997167943045497, -0.004955870099365711, -0.020176373422145844, 0.014828277751803398, 0.008264407515525818, 0.006385356187820435, -0.019770503044128418, -0.0015181273920461535, 0.0007323827594518661, -0.010288449935615063, 0.0078423535451293, -0.0034751093480736017, 0.006850206758826971, 0.01691986434161663, 0.00874255783855915, 0.009341413155198097, 0.004464922472834587, 0.01509833987802267, -0.004934885539114475], [-0.013620071113109589, 0.016753874719142914, 0.00046135313459672034, 0.0006744634010829031, 0.004189192317426205, 0.02603781409561634, -0.0008039658423513174, -0.01786179654300213, -0.02329486981034279, 0.014991475269198418, -0.0043779537081718445, -0.01117577776312828, -0.016073307022452354, -0.0017315272707492113, -0.024476604536175728, -0.0010413265554234385, 0.031132174655795097, 0.004894643556326628, -0.017575765028595924, -0.00015387679741252214, 0.017475562170147896, 0.014095260761678219, 0.006606329698115587, 0.028311770409345627, 0.006995693780481815, -0.013238194398581982, -0.04478349909186363, 0.030298156663775444, -0.0009348356979899108, 0.03964220732450485, -0.0037326649762690067, 0.006186243146657944, 0.020369190722703934, 0.0044312020763754845, -0.013577774167060852, 0.005043398588895798, -0.025022294372320175, -0.004098639823496342, -0.03561665490269661, -0.003256686730310321, -0.01474605780094862, -0.001320074312388897, -0.008068845607340336, 0.0018053416861221194, 0.006230310071259737, 0.003080317983403802, -0.0018262119265273213, 0.012921333312988281, 0.013234485872089863, -0.004114823415875435, 0.013316846452653408, -0.008922593668103218, 0.013065318576991558, -0.004370731767266989, 0.0013211352052167058, 0.0189574733376503, -0.004744186997413635, -0.01619809679687023, 0.011408297345042229, 0.017685910686850548, 9.173405123874545e-05, -0.009293289855122566, 0.01420796848833561, 0.02189149335026741, -0.01845899596810341, -0.008857356384396553, 0.008497470058500767, -0.004365619737654924, -0.004788728430867195, 0.005247439257800579, -0.01396647933870554, -0.009149720892310143, -0.0032685024198144674, 0.03238457813858986, -0.014404678717255592, 0.030051184818148613, -0.010522195138037205, -0.017497438937425613, 0.014976914040744305, 0.010324368253350258, 0.019450711086392403, -0.013672460801899433, -0.010255822911858559, -0.020940905436873436, -0.004339191131293774, -0.022429872304201126, 0.004095166921615601, 0.000636537850368768, 0.004736825358122587, 0.013998977839946747, 0.0035419100895524025, -0.025050479918718338, -0.009269801899790764, -0.02481723390519619, 0.0021377792581915855, -0.012349839322268963, 0.007249732967466116, 0.01961502619087696, 0.009953486733138561, -0.020334366708993912, -0.018221775069832802, 0.004140747711062431, -0.0013974141329526901, -0.01353316567838192, 0.01176974643021822, -0.017981132492423058, 0.0007978065405040979, -0.02951608970761299, -0.005800766870379448, -0.029053254052996635, -0.01844724453985691, 0.014297171495854855, 0.008504827506840229, 0.03313716873526573, 0.02986336499452591, 0.0012037017149850726, 0.002610080875456333, -0.012980769388377666, 0.015463960357010365, 0.01564696803689003, -0.0012916516279801726, 0.023355673998594284, 0.01971154473721981, -0.0017409445717930794, 0.004177165683358908, -0.007655358407646418, 0.008139537647366524, -0.027665505185723305, 0.008643599227070808, 0.00567226717248559, 0.006981273181736469, 0.011229528114199638, 0.00033814250491559505, -0.01913175731897354, 0.006069212686270475, -0.013851485215127468, -0.022397855296730995, 0.011228572577238083, -0.007513155695050955, -0.024329369887709618, -0.004745060112327337, 0.025168532505631447, -0.017177846282720566, 0.016604065895080566, -0.0046498943120241165, -0.009244099259376526, 0.025697795674204826, 0.001539175515063107, -0.027386050671339035, -0.030315708369016647, 0.004811753518879414, -0.0004473745939321816, 0.005026760511100292, -0.0035110334865748882, 0.016794733703136444, -0.0070917606353759766, -0.0030994941480457783, 0.0111045241355896, -0.025276534259319305, -0.020853232592344284, -0.017703603953123093, 0.008439688943326473, -0.02315189130604267, 0.028352124616503716, -0.0376146174967289, 0.013843944296240807, -0.0036696260794997215, -0.04000501707196236, 0.042446691542863846, 0.014030024409294128, -0.0048529962077736855, 0.01283542811870575, -0.007009135093539953, -0.01144745945930481, -0.009334471076726913, 0.04268699884414673, -0.013135328888893127, -0.02525349333882332, 0.01573682762682438, 0.0258566215634346, -0.022363172844052315, -0.04929297789931297, 0.010309018194675446, -0.018449511379003525, 0.016821395605802536, -0.037666939198970795, 0.0047698840498924255, -0.027453672140836716, -0.010802074335515499, -0.015796126797795296, 0.010756542906165123, -0.012340230867266655, 0.010482026264071465, 0.003700646571815014, 0.003753364784643054, 0.002586997812613845, -0.03370201215147972, 0.005676778964698315, 0.01395685225725174, -0.020810823887586594, 0.01160633098334074, 0.011177297681570053, 0.010987120680510998, 0.023634247481822968, 0.005563839804381132, 0.010435427539050579, 0.004310044459998608, -0.018856337293982506, 0.0014955346705392003, -0.009069349616765976, -0.008285591378808022, 0.019913239404559135, 0.016792334616184235, -0.002875199308618903, 0.012419463135302067, -4.7728794015711173e-05, -0.010699507780373096, 0.030401017516851425, 0.023628942668437958, 0.01605869270861149, 0.0012968142982572317, 0.023289024829864502, -0.004135624505579472, 0.018563421443104744, -0.005010304041206837, 0.016684796661138535, 0.02915276400744915, -0.020574327558279037, 0.007593437563627958, -0.006129004992544651, 0.011841525323688984, -0.02265399508178234, -0.009169130586087704, 0.018750738352537155, -0.01420002430677414, 0.0007221615524031222, -0.0028474454302340746, 0.0006008878699503839, -0.007140676025301218, -0.001660655252635479, -0.003397571388632059, 0.004963529296219349, 0.026659920811653137, 0.024928003549575806, 0.016120383515954018, 0.054392069578170776, 0.007163539994508028, -0.008903545327484608, -0.013640208169817924, 0.01810930110514164, -0.0103308642283082, 0.009353391826152802, -0.022113222628831863, -0.005453829653561115, -0.00485211843624711, -0.014941739849746227, -0.01291570533066988, 0.02878032810986042, -0.017718497663736343, -0.0019776064436882734, 0.024994710460305214, -0.009120095521211624, -0.009771148674190044, 0.028384825214743614, -0.0006154318689368665, 0.00034565950045362115, -0.02044595777988434, 0.027675122022628784, -0.02020062878727913, -0.03178440406918526, -0.01732487604022026, -0.03220716863870621, 0.008776568807661533, -0.03451475501060486, 0.0032063305843621492, -0.028954671695828438, 0.03359518200159073, -0.039459168910980225, 0.007322823163121939, -0.0019222840201109648, -0.0032047517597675323, 0.006453777197748423, -0.020319007337093353, -0.004819692112505436, 0.03347030654549599, 0.016098083928227425, 0.011676965281367302, 0.02810841239988804, 0.020258646458387375, 0.012420189566910267, 0.021915258839726448, 0.004207526799291372, 0.011426485143601894, 0.02168426848948002, -0.011602520942687988, -0.0037299313116818666, 0.022620953619480133, 0.019725510850548744, -0.01576591283082962, 0.011951829306781292, 0.02353433519601822, -0.007925611920654774, -0.014470988884568214, -0.0007193483761511743, -0.014604763127863407, -0.010784878395497799, -0.005941343959420919, 0.026809915900230408, 0.03258936107158661, -0.019072195515036583, -0.017663845792412758, 0.011613511480391026, 0.024402137845754623, -0.01308037806302309, 0.008870442397892475, 0.005124968942254782, 0.000211078513530083, 0.02816958539187908, 0.006533813197165728, 0.009463731199502945, -0.03491051122546196, 0.014518342912197113, 0.0031464293133467436, -0.012977656908333302, 0.016420764848589897, 0.019469039514660835, 0.017443545162677765, -0.0011660897871479392, 0.016854705289006233, 0.012510162778198719, -0.011176087893545628, 0.03281369060277939, -0.01303174439817667, -0.020632151514291763, 0.02844269387423992, -0.01237303763628006, 0.0005571346846409142, 0.011271909810602665, -0.017503228038549423, -0.02453644946217537, 0.005680446047335863, -0.006461508572101593, 0.003162991488352418, -0.008653262630105019, -0.028195330873131752, -0.001839842414483428, 0.00954680610448122, -0.02507234923541546, 0.020790740847587585, -0.03550536185503006, 0.004311553668230772, -8.226585487136617e-05, 0.019020916894078255, 0.01814170740544796, -0.010933608748018742, -0.006953684147447348, 0.008798767812550068, 0.00685602193698287, -0.021368535235524178, -0.02565154992043972, 0.015982238575816154, 0.0014809281565248966, -0.009493044577538967, 0.003218571189790964, 0.00698004849255085, -0.0036207628436386585, -0.013462105765938759, 0.04797090217471123, -0.005488026421517134, 0.019746610894799232, -0.01150626502931118, 0.005365557968616486, 0.0050688995979726315, 0.00528459157794714, -0.0069460319355130196, -0.009662964381277561, 0.0006128065870143473, -0.02845780923962593, 0.007334294728934765, -0.012161650694906712, 0.05171055719256401, 0.0028429117519408464, 0.007711903657764196, 0.005377086345106363, -0.008380131796002388, 0.014500538818538189, -0.005031172186136246, -0.021639330312609673, -0.014511536806821823, -0.011435403488576412, 0.0023939807433634996, -0.007298602256923914, 0.0050161052495241165, 0.004989216569811106, -0.009248589165508747, 0.0005448058946058154, -0.014826511032879353, 0.017138531431555748, 0.006746192462742329, -0.029795091599225998, -0.004646404646337032, -0.0333758108317852, -0.01941346377134323, -0.009910637512803078, 0.0037997968029230833, 0.01607128232717514, 0.008179203607141972, 0.002711131703108549, 0.011024052277207375, 0.005804651882499456, 0.0015846577007323503, 0.0031142060179263353, -0.0029694009572267532, 0.002387186512351036, -0.028976818546652794, 0.022225458174943924, -0.02039579674601555, -0.028386548161506653, -0.0025260744150727987, 0.01689360849559307, 0.008800097741186619, 0.02974408119916916, -0.013834000565111637, -0.017743835225701332, 0.004649798385798931, -0.037620943039655685, 0.02183174528181553, -0.008684737607836723, -0.028451984748244286, 0.001257428084500134, 0.03262414038181305, -0.008605939336121082, -0.012918256223201752, -0.01730387471616268, 0.010985870845615864, -0.015502260066568851, -0.015229492448270321, 0.006768564693629742, 0.0046275001950562, -0.02311362512409687, -0.01021081767976284, -0.002613028045743704, -0.03201797977089882, 0.004600683227181435, 0.0004924076492898166, -0.004368011374026537, -0.019620424136519432, -0.012190582230687141, 0.04265964776277542, 0.0022642300464212894, -0.029388312250375748, -0.005604275036603212, 0.00022133495076559484, -0.018960922956466675, 0.04099532961845398, 0.01472438219934702, 0.00902442168444395, 0.022258859127759933, 0.0002354540629312396, -0.012229244224727154, -0.00016003278142306954, -0.0023019430227577686, 0.001112834783270955, -0.0034213114995509386, -0.020804960280656815, 0.0017022924730554223, -0.014265899546444416, 0.023412685841321945, 0.025938963517546654, -0.010921020992100239, -0.0005068962927907705, -0.02662832848727703, -0.009389483369886875, -0.005980119574815035, -0.030169330537319183, 0.024945082142949104, -0.012482929974794388, -0.01845754124224186, -0.020863445475697517, 0.009639020077884197, -0.0113238375633955, -0.004853331483900547, -0.0006022527813911438, 0.004965508822351694, -0.01928231678903103, 0.015213049948215485, -0.0186699777841568, -0.01490128505975008, 0.011849528178572655, 0.004832922481000423, -0.008517379872500896, -0.00447163125500083, 0.04961434379220009, 0.011075404472649097, 0.0020158272236585617, -0.0015711458399891853, -0.0170607753098011, -0.008638556115329266, -0.002665946027263999, -0.003343436401337385, 0.00419128593057394, -0.009761982597410679, 0.021859174594283104, 0.01803555153310299, -0.01217858586460352, 0.01200104970484972, -0.03319968655705452, -0.01091440673917532, -0.00042944643064402044, -0.001993120415136218, 0.0030839089304208755, -0.002500616479665041, 0.00432664155960083, 0.01320409681648016, 0.0009751255274750292, 0.005091090686619282, 0.013017102144658566, 0.04125199839472771, 0.006178750190883875, 0.007544667460024357, 0.040724702179431915, -0.0063062733970582485, -0.009499645791947842, -0.007072943262755871, 0.0095007149502635, 0.024204812943935394, -0.0053926571272313595, 0.013782118447124958, -0.014643183909356594, -0.006942059379070997, -0.00027609762037172914, 0.01181355956941843, -0.0314570777118206, 0.030794475227594376, 0.005687260534614325, -0.010704586282372475, 0.00026946960133500397, -0.008501498959958553, 0.01891624741256237, -0.014390639029443264, -0.01717306300997734, 0.003410793375223875, 0.006582518108189106, -0.025126101449131966, 0.0049347663298249245, 0.016118913888931274, -0.00899388175457716, 0.01622682996094227, -0.006171999964863062, -0.007420282810926437, -0.004786252975463867, -0.0007028788677416742, -0.0015221601352095604, 0.0028785045724362135, 0.004968544002622366, 0.007452785968780518, -0.01958407089114189, 0.017177321016788483, -0.0004936571349389851, 0.014371340163052082, 0.006186356768012047, -0.002578314393758774, 0.032374028116464615, -0.005827459041029215, 0.006407294888049364, -0.004166554659605026, 0.004928284790366888, 0.0026755090802907944, -0.0036940372083336115, 0.005615126807242632, 0.008524772711098194, 0.0050782193429768085, -0.0018031041836366057, 0.008097952231764793, -0.004187554121017456, 0.021175118163228035, 0.0060904924757778645, 0.0030913089867681265, -0.016613995656371117, -0.0016699522966518998, -0.006690255366265774, 0.018380526453256607, 0.010382922366261482, 0.014299161732196808, -0.005916738882660866, 0.005108912941068411, -0.001195535878650844, -0.013936164788901806, -0.010015598498284817, -0.010656860657036304, -0.006194957531988621, 0.00038489492726512253, 0.025235513225197792, 0.020410405471920967, -0.010914142243564129, -0.016086192801594734, -0.00358283962123096, 0.007761571556329727, 0.009394614957273006, -0.003964787349104881, 0.01766195334494114, -0.0012260939693078399, 0.005254565738141537, 0.026770392432808876, 0.010167158208787441, 0.006683809217065573, -0.006061272229999304, -0.010361835360527039, 0.01985718309879303, 0.004758747294545174, 0.011388817802071571, -0.02641071006655693, -0.0258454792201519, 0.0019720199052244425, 0.007799137849360704, -0.007840614765882492, -0.023188170045614243, -0.010851988568902016, -0.025401856750249863, -0.006668143440037966, -0.009872391819953918, 0.0033254786394536495, 0.00849320087581873, -0.04292720556259155, 0.010723109357059002, -0.012087979353964329, 0.00923129078000784, -0.009607403539121151, -0.021328458562493324, -0.011625410057604313, -0.015352764166891575, 0.002416011178866029, 0.010022333823144436, 0.01761368289589882, -0.020898275077342987, -0.01837293803691864, 0.006059478502720594, -0.00254277465865016, -0.013957411982119083, 0.003593220841139555, -0.0021304378751665354, -0.0033009785693138838, 0.018391134217381477, -0.018109887838363647, 0.025038082152605057, 0.0010592294856905937, -0.009453682228922844, -0.018908321857452393, -0.010691509582102299, -0.01761862449347973, 0.03650013357400894, -0.00671929819509387, 0.010763256810605526, 0.023486239835619926, 0.012849283404648304, -0.016373436897993088, 0.026297323405742645, 0.0046820444986224174, 0.005373597145080566, 0.0063280630856752396, -0.007682468742132187, 0.00637796288356185, 0.003777576144784689, -0.005392749328166246, -0.010257783345878124, 0.01680195890367031, 0.03261297196149826, -0.029304753988981247, -0.007710418663918972, 0.01332664955407381, 0.0350867360830307, -0.013832751661539078, -0.03412996232509613, -0.011019538156688213, -0.007638145703822374, -0.012152464129030704, 0.0022303564473986626, -0.010565795935690403, 0.026621922850608826, -0.005356582812964916, 0.018947023898363113, 0.008587101474404335, -0.015713468194007874, -0.011776424944400787, 0.0004143787082284689, 0.029316669330000877, -0.04385180398821831, -0.008609057404100895, -0.0045171743258833885, 0.014153691940009594, 0.005137796979397535, 0.0008423321414738894, 0.006471236236393452, 0.006652032490819693, -0.037033431231975555, -0.00888238474726677, -0.011917405761778355, 0.004944446496665478, 0.009587894193828106, 0.011010373942553997, 0.009161241352558136, 0.0013498719781637192, 0.03138645365834236, 0.0026916940696537495, -0.0013612163020297885, 0.02498372457921505, -0.01208628062158823, -0.010617812164127827, -0.005530590657144785, 0.01251649484038353, -0.006049891468137503, 0.0030544062610715628, 0.005727158859372139, -0.024892888963222504, -0.0017838793573901057, 0.016833635047078133, -0.02235153131186962, -0.007548450026661158, 0.016510438174009323, -0.03537343069911003, -0.025750283151865005, -0.02522176504135132, 0.017148582264780998, -0.012447318993508816, 0.015532045625150204, 0.00974423810839653, -0.015255768783390522, 0.003675366286188364, -0.008541574701666832, 0.012809463776648045, -0.011160729452967644, 0.027527622878551483, 0.02229096181690693, -0.021393094211816788, -0.011152505874633789, 0.004616828635334969, 0.0055392286740243435, 0.013632532209157944, 0.009066038765013218, 0.017158886417746544, 0.006105534266680479, 0.01303865760564804, 0.028568116948008537, -0.01869724877178669, 0.005883956328034401, 0.02108938619494438, 0.010316821746528149, -0.024417350068688393, -0.001434797653928399, -0.009870053268969059, -0.013594025745987892, 0.02220863662660122, -0.001789405825547874, 0.00870798621326685, 0.00621004868298769, 0.012251416221261024, -0.0037834616377949715, 0.0005681895418092608, 0.028772596269845963, -0.03179106116294861, 0.020123781636357307, 0.01599706895649433, -0.006792581174522638, -0.013976536691188812, -0.014441471546888351, 0.020361153408885002, 0.00894853938370943, -0.005025197751820087]], "classifier_bias": [0.00013302885054145008, -0.00013342949387151748], "id2label": {"0": "entailment", "1": "not_entailment"}}